{"learner":{"attributes":{},"gradient_booster":{"model":{"gbtree_model_param":{"num_trees":"10","size_leaf_vector":"0"},"tree_info":[0,0,0,0,0,0,0,0,0,0],"trees":[{"base_weights":[9.3653986E2,5.3756744E2,5.040117E4,3.11057E2,1.1643601E4,3.836546E4,7.302958E4,1.6417924E2,3.286662E3,9.199859E3,2.1406674E4,3.1645328E4,4.564828E4,6.38572E4,9.010982E4,5.5328426E1,7.438758E2,2.428156E3,4.3541626E3,8.1279893E3,1.3349473E4,-0E0,2.1543025E4,2.457998E4,3.6484508E4,4.615305E4,1.4108E4,2.7862217E1,2.5323843E2,5.3297266E2,1.3000084E3,2.1001208E3,2.809272E3,3.9126548E3,5.3011895E3,-0E0,8.426587E3,-0E0,1.3559709E4,2.045757E4,2.6705438E4,1.5174344E4,2.8282926E4],"default_left":[true,true,true,true,true,true,true,true,true,true,true,true,true,false,false,true,true,true,true,true,true,false,true,true,false,false,false,false,false,false,false,false,false,false,false,false,false,false,false,false,false,false,false],"id":0,"leaf_child_counts":[0,0,0,0,0,0,0,0,0,0,0,0,0,0,0,0,0,0,0,0,0,0,0,0,0,0,0,0,0,0,0,0,0,0,0,0,0,0,0,0,0,0,0],"left_children":[1,3,5,7,9,11,13,15,17,19,21,23,25,-1,-1,27,29,31,33,35,37,-1,39,41,-1,-1,-1,-1,-1,-1,-1,-1,-1,-1,-1,-1,-1,-1,-1,-1,-1,-1,-1],"loss_changes":[7.892747E11,9.980648E10,8.43487E10,1.6993688E10,1.8722488E10,8.881373E9,1.1477647E10,2.3382006E9,1.6655585E9,2.7201085E9,4.6118502E8,2.9661266E9,9.2440166E8,0E0,0E0,1.6958282E8,6.863744E8,1.210711E8,3.1951565E8,1.2329902E9,3.6205773E8,0E0,3.3295565E8,1.2769915E9,0E0,0E0,0E0,0E0,0E0,0E0,0E0,0E0,0E0,0E0,0E0,0E0,0E0,0E0,0E0,0E0,0E0,0E0,0E0],"parents":[2147483647,0,0,1,1,2,2,3,3,4,4,5,5,6,6,7,7,8,8,9,9,10,10,11,11,12,12,15,15,16,16,17,17,18,18,19,19,20,20,22,22,23,23],"right_children":[2,4,6,8,10,12,14,16,18,20,22,24,26,-1,-1,28,30,32,34,36,38,-1,40,42,-1,-1,-1,-1,-1,-1,-1,-1,-1,-1,-1,-1,-1,-1,-1,-1,-1,-1,-1],"split_conditions":[2.6144857E4,5.6488574E3,5.389157E4,1.6807145E3,1.5655143E4,3.932386E4,7.73545E4,3.92714E2,3.1654285E3,1.0932215E4,3.15E1,1.01578E2,2.753646E4,6.38572E3,9.010982E3,1.3578549E2,9.240823E2,2.3110715E3,4.477786E3,2.379E0,9.5E0,-0E0,4.33236E2,5.9E1,3.648451E3,4.615305E3,1.4108E3,2.7862217E0,2.5323843E1,5.3297268E1,1.3000084E2,2.1001208E2,2.8092722E2,3.9126547E2,5.3011896E2,-0E0,8.426587E2,-0E0,1.355971E3,2.0457571E3,2.6705437E3,1.5174344E3,2.8282927E3],"split_indices":[5,5,5,5,5,5,5,5,5,5,7,10,9,0,0,5,5,5,5,10,7,0,10,0,0,0,0,0,0,0,0,0,0,0,0,0,0,0,0,0,0,0,0],"sum_hessian":[3.9994E4,3.9675E4,3.19E2,3.8883E4,7.92E2,2.1E2,1.09E2,3.7055E4,1.828E3,6.35E2,1.57E2,1.12E2,9.8E1,7.4E1,3.5E1,3.1198E4,5.857E3,1.015E3,8.13E2,5.07E2,1.28E2,1E0,1.56E2,4.8E1,6.4E1,9.6E1,2E0,2.7397E4,3.801E3,4.248E3,1.609E3,5.49E2,4.66E2,5.58E2,2.55E2,1.8E1,4.89E2,2E0,1.26E2,1.33E2,2.3E1,1.5E1,3.3E1],"tree_param":{"num_deleted":"0","num_feature":"30","num_nodes":"43","size_leaf_vector":"0"}},{"base_weights":[8.335552E2,4.9131613E2,4.556243E4,2.9562988E2,1.1526727E4,3.502683E4,6.6599336E4,1.5542216E2,3.2855872E3,8.577665E3,1.8968766E4,2.8869615E4,4.165286E4,5.7918223E4,8.1066305E4,1.009402E2,1.2222539E3,2.5571953E3,4.5715356E3,-0E0,8.826823E3,-0E0,1.9366027E4,2.5178041E4,3.1913643E4,4.189401E4,9.36685E3,3.4825306E1,4.2986514E2,1.046817E3,1.5274596E3,2.1192036E3,2.9937207E3,3.820845E3,4.9859033E3,7.355314E3,1.0604862E4,1.6004159E4,2.1310115E4,3.225747E4,6.4965327E3],"default_left":[true,true,true,true,true,true,true,true,true,true,true,true,true,false,false,true,true,true,true,false,true,false,true,false,true,false,false,false,false,false,false,false,false,false,false,false,false,false,false,false,false],"id":1,"leaf_child_counts":[0,0,0,0,0,0,0,0,0,0,0,0,0,0,0,0,0,0,0,0,0,0,0,0,0,0,0,0,0,0,0,0,0,0,0,0,0,0,0,0,0],"left_children":[1,3,5,7,9,11,13,15,17,19,21,23,25,-1,-1,27,29,31,33,-1,35,-1,37,-1,39,-1,-1,-1,-1,-1,-1,-1,-1,-1,-1,-1,-1,-1,-1,-1,-1],"loss_changes":[6.108415E11,8.551829E10,6.482205E10,1.6312791E10,1.4980465E10,7.1195525E9,7.862321E9,2.1604147E9,1.620863E9,1.06011034E9,1.4694728E9,4.207657E8,3.545006E8,0E0,0E0,7.691008E8,9.507635E7,2.0678656E8,1.765202E8,0E0,1.1829248E9,0E0,9.0690355E8,0E0,2.794455E8,0E0,0E0,0E0,0E0,0E0,0E0,0E0,0E0,0E0,0E0,0E0,0E0,0E0,0E0,0E0,0E0],"parents":[2147483647,0,0,1,1,2,2,3,3,4,4,5,5,6,6,7,7,8,8,9,9,10,10,11,11,12,12,15,15,16,16,17,17,18,18,20,20,22,22,24,24],"right_children":[2,4,6,8,10,12,14,16,18,20,22,24,26,-1,-1,28,30,32,34,-1,36,-1,38,-1,40,-1,-1,-1,-1,-1,-1,-1,-1,-1,-1,-1,-1,-1,-1,-1,-1],"split_conditions":[2.6226285E4,6.506286E3,5.3978715E4,1.8879285E3,1.3675643E4,3.932386E4,7.73545E4,9.245108E2,3.893643E3,1.5E0,2.5E1,3.1249928E4,2.753646E4,5.7918223E3,8.1066304E3,2.4521451E2,1.4134285E3,2.6080715E3,4.4830713E3,-0E0,9.230571E3,-0E0,1.9090428E4,2.5178042E3,3.9120215E4,4.1894014E3,9.36685E2,3.4825306E0,4.2986515E1,1.046817E2,1.5274596E2,2.1192036E2,2.9937207E2,3.820845E2,4.9859033E2,7.3553143E2,1.0604862E3,1.6004159E3,2.1310115E3,3.225747E3,6.4965326E2],"split_indices":[5,5,5,5,5,5,5,5,5,7,7,5,9,0,0,5,5,5,5,0,5,0,5,0,5,0,0,0,0,0,0,0,0,0,0,0,0,0,0,0,0],"sum_hessian":[3.9904E4,3.9602E4,3.02E2,3.8913E4,6.89E2,2.03E2,9.9E1,3.7171E4,1.742E3,4.95E2,1.94E2,1.08E2,9.5E1,6.5E1,3.4E1,3.5366E4,1.805E3,1.114E3,6.28E2,1.4E1,4.81E2,4E0,1.9E2,5.3E1,5.5E1,9.4E1,1E0,2.9448E4,5.918E3,1.149E3,6.56E2,5.59E2,5.55E2,2.27E2,4.01E2,2.66E2,2.15E2,7.3E1,1.17E2,5.4E1,1E0],"tree_param":{"num_deleted":"0","num_feature":"30","num_nodes":"41","size_leaf_vector":"0"}},{"base_weights":[7.623458E2,3.8124057E2,3.5059188E4,2.0055064E2,6.130947E3,2.6713355E4,5.7728324E4,1.03368126E2,1.7337919E3,4.441399E3,9.490516E3,2.108434E4,3.3700176E4,5.053512E4,7.450662E4,3.1305387E1,4.2830685E2,1.3977488E3,2.5916523E3,3.8709553E3,5.455027E3,8.071145E3,1.3036511E4,1.5147672E4,2.3831107E4,2.6765566E4,3.7651234E4,6.9197283E0,1.6937099E2,2.7023166E2,7.2282263E2,1.2133369E3,1.783465E3,2.55791E3,8.9003545E3,-5.705759E1,3.9329458E3,-2.1268156E2,5.577273E3,-0E0,8.451331E3,-0E0,1.3271412E4,1.8097234E4,7.259404E3,2.1482277E4,2.7372613E4,3.1059945E4,1.3242557E4,1.861657E4,3.8573484E4],"default_left":[true,true,true,true,true,true,true,true,true,true,true,true,true,false,false,true,true,true,true,true,true,true,true,true,true,true,true,false,false,false,false,false,false,false,false,false,false,false,false,false,false,false,false,false,false,false,false,false,false,false,false],"id":2,"leaf_child_counts":[0,0,0,0,0,0,0,0,0,0,0,0,0,0,0,0,0,0,0,0,0,0,0,0,0,0,0,0,0,0,0,0,0,0,0,0,0,0,0,0,0,0,0,0,0,0,0,0,0,0,0],"left_children":[1,3,5,7,9,11,13,15,17,19,21,23,25,-1,-1,27,29,31,33,35,37,39,41,43,45,47,49,-1,-1,-1,-1,-1,-1,-1,-1,-1,-1,-1,-1,-1,-1,-1,-1,-1,-1,-1,-1,-1,-1,-1,-1],"loss_changes":[5.2093236E11,4.095166E10,8.132352E10,5.694595E9,6.7747676E9,1.19528E10,1.0354229E10,8.4159885E8,6.53035E8,4.41942E8,1.9128361E9,2.5901384E9,2.8822733E9,0E0,0E0,9.904556E7,3.0352384E8,1.1438925E8,1.1335731E8,1.2590899E8,1.9939686E8,8.868618E8,3.460526E8,1.2643871E9,4.2632806E8,2.7822572E9,8.261304E8,0E0,0E0,0E0,0E0,0E0,0E0,0E0,0E0,0E0,0E0,0E0,0E0,0E0,0E0,0E0,0E0,0E0,0E0,0E0,0E0,0E0,0E0,0E0,0E0],"parents":[2147483647,0,0,1,1,2,2,3,3,4,4,5,5,6,6,7,7,8,8,9,9,10,10,11,11,12,12,15,15,16,16,17,17,18,18,19,19,20,20,21,21,22,22,23,23,24,24,25,25,26,26],"right_children":[2,4,6,8,10,12,14,16,18,20,22,24,26,-1,-1,28,30,32,34,36,38,40,42,44,46,48,50,-1,-1,-1,-1,-1,-1,-1,-1,-1,-1,-1,-1,-1,-1,-1,-1,-1,-1,-1,-1,-1,-1,-1,-1],"split_conditions":[1.9090428E4,3.8193574E3,5.1252285E4,1.1407141E3,7.839286E3,3.439879E4,7.845428E4,3.5E0,2.470643E3,5.588143E3,1.2133428E4,7.71315E1,1.24904E2,5.053512E3,7.4506616E3,9.35E1,5.45E2,1.7703574E3,8.7701697E2,2.325E0,2.3675E0,3E0,1.45E1,2.255E2,2.676557E4,4E0,5.9684555E1,6.9197285E-1,1.69371E1,2.7023167E1,7.2282265E1,1.21333694E2,1.783465E2,2.55791E2,8.9003546E2,-5.705759E0,3.932946E2,-2.1268156E1,5.577273E2,-0E0,8.451331E2,-0E0,1.3271412E3,1.8097235E3,7.2594037E2,2.1482278E3,2.7372615E3,3.1059946E3,1.3242557E3,1.8616571E3,3.8573484E3],"split_indices":[5,5,5,5,5,5,5,7,5,5,5,10,10,0,0,5,5,5,10,10,10,7,7,3,5,1,15,0,0,0,0,0,0,0,0,0,0,0,0,0,0,0,0,0,0,0,0,0,0,0,0],"sum_hessian":[3.9855E4,3.9418E4,4.37E2,3.8218E4,1.2E3,3.21E2,1.16E2,3.5941E4,2.277E3,8E2,4E2,1.8E2,1.41E2,8.4E1,3.2E1,2.9418E4,6.523E3,1.638E3,6.39E2,5.15E2,2.85E2,2.88E2,1.12E2,5.9E1,1.21E2,5.4E1,8.7E1,2.5003E4,4.415E3,4.246E3,2.277E3,1.111E3,5.27E2,6.37E2,2E0,8E0,5.07E2,6E0,2.79E2,1.3E1,2.75E2,2E0,1.1E2,4.2E1,1.7E1,7.7E1,4.4E1,4E1,1.4E1,5E0,8.2E1],"tree_param":{"num_deleted":"0","num_feature":"30","num_nodes":"51","size_leaf_vector":"0"}},{"base_weights":[6.720988E2,3.9559836E2,2.6626713E4,1.9962262E2,5.425633E3,6.1226104E3,3.368202E4,8.550552E1,1.289978E3,4.5984424E3,1.5802917E4,1.4293281E4,3.5205857E3,5.4202207E4,2.976058E4,2.724562E1,3.6262827E2,9.472352E2,2.7623645E3,4.061608E3,1.2212044E4,8.488438E3,2.9806809E4,9.352664E3,1.5620736E4,1.095291E3,4.5295195E3,1.9157662E4,4.1845508E4,6.989597E0,1.8412187E2,2.7229404E2,8.1293176E2,7.332154E2,1.3486337E3,2.2315747E3,8.41598E3,2.6794678E3,7.0153125E3,5.7306963E3,2.2232998E4,4.6608423E3,1.9121037E4,2.1507508E4,3.7371766E4,6.807254E2,1.9417229E3,1.2423587E4,2.264444E4,3.7402625E4,7.13401E4],"default_left":[true,true,true,true,true,true,true,true,true,true,true,true,true,false,true,true,true,true,true,true,true,true,true,false,false,true,false,true,true,false,false,false,false,false,false,false,false,false,false,false,false,false,false,false,false,false,false,false,false,false,false],"id":3,"leaf_child_counts":[0,0,0,0,0,0,0,0,0,0,0,0,0,0,0,0,0,0,0,0,0,0,0,0,0,0,0,0,0,0,0,0,0,0,0,0,0,0,0,0,0,0,0,0,0,0,0,0,0,0,0],"left_children":[1,3,5,7,9,11,13,15,17,19,21,23,25,-1,27,29,31,33,35,37,39,41,43,-1,-1,45,-1,47,49,-1,-1,-1,-1,-1,-1,-1,-1,-1,-1,-1,-1,-1,-1,-1,-1,-1,-1,-1,-1,-1,-1],"loss_changes":[2.866243E11,3.895727E10,6.0696363E10,4.7331246E9,1.2648604E10,2.2668726E9,2.3572742E10,5.559765E8,1.816105E9,5.566112E9,1.0911599E10,2.417408E7,2.005273E8,0E0,3.315363E10,9.042112E7,2.4310253E8,2.5026893E8,2.0217119E9,5.2270326E9,5.7177457E9,2.8815442E9,1.5186412E9,0E0,0E0,7.775438E6,0E0,3.0759977E9,1.3448659E10,0E0,0E0,0E0,0E0,0E0,0E0,0E0,0E0,0E0,0E0,0E0,0E0,0E0,0E0,0E0,0E0,0E0,0E0,0E0,0E0,0E0,0E0],"parents":[2147483647,0,0,1,1,2,2,3,3,4,4,5,5,6,6,7,7,8,8,9,9,10,10,11,11,12,12,14,14,15,15,16,16,17,17,18,18,19,19,20,20,21,21,22,22,25,25,27,27,28,28],"right_children":[2,4,6,8,10,12,14,16,18,20,22,24,26,-1,28,30,32,34,36,38,40,42,44,-1,-1,46,-1,48,50,-1,-1,-1,-1,-1,-1,-1,-1,-1,-1,-1,-1,-1,-1,-1,-1,-1,-1,-1,-1,-1,-1],"split_conditions":[4.23235E4,8.85E1,1.7074608E8,1.55E1,3.337E4,1.11E2,8.2466E1,2.5E0,9.997E1,3.0226314E8,2.95E0,2.519885E2,3.4545E1,5.4202207E3,1.430435E2,3.0496E1,1.060845E2,3.65E1,4.597528E7,1.24958496E2,3.7601752E2,3.066655E2,7.7545E1,9.352664E2,1.5620736E3,2.3240501E1,4.5295197E2,5.9E1,2.97E2,6.989597E-1,1.8412188E1,2.7229404E1,8.1293175E1,7.332154E1,1.3486337E2,2.2315747E2,8.415981E2,2.6794678E2,7.0153125E2,5.7306964E2,2.2232998E3,4.6608423E2,1.9121038E3,2.1507507E3,3.7371765E3,6.807254E1,1.9417229E2,1.2423588E3,2.264444E3,3.7402625E3,7.1340103E3],"split_indices":[6,7,16,7,6,0,12,7,10,16,22,10,10,0,10,10,10,7,16,10,9,10,15,0,0,10,0,0,3,0,0,0,0,0,0,0,0,0,0,0,0,0,0,0,0,0,0,0,0,0,0],"sum_hessian":[3.994E4,3.952E4,4.2E2,3.8039E4,1.481E3,1.08E2,3.12E2,3.4436E4,3.603E3,1.373E3,1.08E2,2.5E1,8.3E1,4.8E1,2.64E2,2.8455E4,5.981E3,2.924E3,6.79E2,1.284E3,8.9E1,7.2E1,3.6E1,7E0,1.8E1,2.5E1,5.8E1,1.42E2,1.22E2,2.5202E4,3.253E3,4.983E3,9.98E2,1.909E3,1.015E3,6.22E2,5.7E1,8.76E2,4.08E2,5.5E1,3.4E1,5.4E1,1.8E1,1.9E1,1.7E1,1.8E1,7E0,5E1,9.2E1,1.08E2,1.4E1],"tree_param":{"num_deleted":"0","num_feature":"30","num_nodes":"51","size_leaf_vector":"0"}},{"base_weights":[6.1847406E2,3.4102448E2,3.1610557E4,1.7989534E2,6.55685E3,2.404391E4,4.679695E4,8.621296E1,1.700698E3,5.050182E3,1.2081122E4,1.8761762E4,2.8112602E4,4.009038E4,5.663634E4,2.593059E1,3.807207E2,1.2644034E3,2.4906697E3,3.9516677E3,6.459709E3,-5.69246E2,1.2386534E4,1.399428E4,2.1626838E4,2.3496281E4,3.2179582E4,1.0506553E4,4.0355203E4,1.3876225E0,8.595088E1,-6.735684E1,4.6619455E2,1.0605367E3,1.5708224E3,-2.2564015E2,2.5430742E3,1.6695631E3,4.147951E3,-7.232794E1,6.778596E3,-0E0,-6.8285535E2,1.0597175E4,1.4267568E4,6.6931743E3,1.6934654E4,5.9908765E3,2.1777387E4,1.2203515E4,2.6578203E4,3.270602E4,9.868071E3],"default_left":[true,true,true,true,true,true,true,true,true,true,true,true,true,true,false,true,true,true,true,true,true,true,true,true,true,true,true,false,false,false,false,false,false,false,false,false,false,false,false,false,false,false,false,false,false,false,false,false,false,false,false,false,false],"id":4,"leaf_child_counts":[0,0,0,0,0,0,0,0,0,0,0,0,0,0,0,0,0,0,0,0,0,0,0,0,0,0,0,0,0,0,0,0,0,0,0,0,0,0,0,0,0,0,0,0,0,0,0,0,0,0,0,0,0],"left_children":[1,3,5,7,9,11,13,15,17,19,21,23,25,27,-1,29,31,33,35,37,39,41,43,45,47,49,51,-1,-1,-1,-1,-1,-1,-1,-1,-1,-1,-1,-1,-1,-1,-1,-1,-1,-1,-1,-1,-1,-1,-1,-1,-1,-1],"loss_changes":[3.440331E11,3.971725E10,3.9667204E10,5.507249E9,8.278708E9,4.6085407E9,5.4491054E9,6.4646656E8,7.698862E8,1.1960463E9,8.339743E8,1.1585249E9,1.7403494E9,1.4741504E8,0E0,4.4527148E7,2.3699078E8,8.86999E7,1.1404749E8,1.9279718E8,7.171031E8,3.872115E5,5.520159E8,8.095406E8,2.2263808E7,1.9722895E9,4.755292E8,0E0,0E0,0E0,0E0,0E0,0E0,0E0,0E0,0E0,0E0,0E0,0E0,0E0,0E0,0E0,0E0,0E0,0E0,0E0,0E0,0E0,0E0,0E0,0E0,0E0,0E0],"parents":[2147483647,0,0,1,1,2,2,3,3,4,4,5,5,6,6,7,7,8,8,9,9,10,10,11,11,12,12,13,13,15,15,16,16,17,17,18,18,19,19,20,20,21,21,22,22,23,23,24,24,25,25,26,26],"right_children":[2,4,6,8,10,12,14,16,18,20,22,24,26,28,-1,30,32,34,36,38,40,42,44,46,48,50,52,-1,-1,-1,-1,-1,-1,-1,-1,-1,-1,-1,-1,-1,-1,-1,-1,-1,-1,-1,-1,-1,-1,-1,-1,-1,-1],"split_conditions":[2.393257E4,4.702857E3,4.992843E4,1.3005E3,1.2117143E4,3.42365E4,7.103686E4,3.0535748E2,2.6822144E3,7.245143E3,5.37E0,8.9687E1,1.44287E2,7.85E1,5.6636343E3,4.6285E0,2.306E0,1.8872855E3,1.9384999E0,2.891E1,2.9605E0,3.02E2,1.7390285E4,5.9E1,1.4021451E2,5.9E1,3.135E2,1.0506553E3,4.0355203E3,1.3876225E-1,8.595088E0,-6.7356844E0,4.6619457E1,1.0605367E2,1.5708224E2,-2.2564016E1,2.5430742E2,1.6695631E2,4.1479514E2,-7.2327943E0,6.778596E2,-0E0,-6.828554E1,1.0597175E3,1.4267568E3,6.6931744E2,1.6934655E3,5.9908765E2,2.1777388E3,1.2203514E3,2.6578203E3,3.270602E3,9.868071E2],"split_indices":[5,5,5,5,5,5,5,5,5,5,10,10,10,0,0,10,10,5,10,10,10,3,5,0,8,0,3,0,0,0,0,0,0,0,0,0,0,0,0,0,0,0,0,0,0,0,0,0,0,0,0,0,0],"sum_hessian":[4.001E4,3.9656E4,3.54E2,3.8655E4,1.001E3,2.38E2,1.16E2,3.6413E4,2.242E3,7.88E2,2.13E2,1.06E2,1.32E2,7.2E1,4.4E1,3.0227E4,6.186E3,1.446E3,7.96E2,4.45E2,3.43E2,5E0,2.08E2,4.2E1,6.4E1,6.5E1,6.7E1,1E0,7.1E1,2.1455E4,8.772E3,9.91E2,5.195E3,8.71E2,5.75E2,1.5E1,7.81E2,3.6E1,4.09E2,1.6E1,3.27E2,1E0,4E0,1.1E2,9.8E1,1.3E1,2.9E1,1E0,6.3E1,1.5E1,5E1,6.5E1,2E0],"tree_param":{"num_deleted":"0","num_feature":"30","num_nodes":"53","size_leaf_vector":"0"}},{"base_weights":[5.578528E2,3.244453E2,3.142643E4,1.902395E2,7.7324746E3,2.4763467E4,4.7988348E4,9.285321E1,2.061387E3,5.7923276E3,1.2646305E4,1.9289693E4,2.8981656E4,4.3105395E4,6.376849E4,2.8181551E1,4.3178467E2,1.5544274E3,2.9769548E3,4.626193E3,7.564994E3,1.0700508E4,1.442826E4,1.3253813E4,2.2336617E4,2.5075066E4,3.2725164E4,2.1535755E1,5.0341418E2,-1.1368532E2,5.14693E2,1.3536476E3,2.0208672E3,1.9098389E3,3.1998066E3,5.143472E1,4.9425728E3,6.7356953E3,1.0713549E4,1.229941E4,6.206529E3,1.1640441E4,1.6831195E4,1.682455E4,8.946197E3,2.3056344E4,1.4505199E4,8.516423E3,2.6668496E4,3.330856E4,1.0923417E4],"default_left":[true,true,true,true,true,true,true,true,true,true,true,true,true,false,false,true,true,true,true,true,true,true,true,true,true,true,true,false,false,false,false,false,false,false,false,false,false,false,false,false,false,false,false,false,false,false,false,false,false,false,false],"id":5,"leaf_child_counts":[0,0,0,0,0,0,0,0,0,0,0,0,0,0,0,0,0,0,0,0,0,0,0,0,0,0,0,0,0,0,0,0,0,0,0,0,0,0,0,0,0,0,0,0,0,0,0,0,0,0,0],"left_children":[1,3,5,7,9,11,13,15,17,19,21,23,25,-1,-1,27,29,31,33,35,37,39,41,43,45,47,49,-1,-1,-1,-1,-1,-1,-1,-1,-1,-1,-1,-1,-1,-1,-1,-1,-1,-1,-1,-1,-1,-1,-1,-1],"loss_changes":[2.88022E11,3.944634E10,3.191636E10,7.1016084E9,6.6572493E9,4.427784E9,3.799728E9,8.120041E8,8.9022E8,1.0150021E9,5.3535744E8,1.4875116E9,9.337569E8,0E0,0E0,9.824177E7,2.6851226E8,1.1363994E8,1.5697408E8,4.4693043E8,4.498811E8,6.34836E8,4.8038707E8,3.8757427E8,2.028544E7,1.4347878E9,3.7341594E8,0E0,0E0,0E0,0E0,0E0,0E0,0E0,0E0,0E0,0E0,0E0,0E0,0E0,0E0,0E0,0E0,0E0,0E0,0E0,0E0,0E0,0E0,0E0,0E0],"parents":[2147483647,0,0,1,1,2,2,3,3,4,4,5,5,6,6,7,7,8,8,9,9,10,10,11,11,12,12,15,15,16,16,17,17,18,18,19,19,20,20,21,21,22,22,23,23,24,24,25,25,26,26],"right_children":[2,4,6,8,10,12,14,16,18,20,22,24,26,-1,-1,28,30,32,34,36,38,40,42,44,46,48,50,-1,-1,-1,-1,-1,-1,-1,-1,-1,-1,-1,-1,-1,-1,-1,-1,-1,-1,-1,-1,-1,-1,-1,-1],"split_conditions":[2.701243E4,6.439715E3,6.092043E4,1.6811431E3,1.3675643E4,3.975914E4,8.630136E4,3.860715E2,3.6980715E3,2.001625E2,3.665E2,9.55535E1,1.498235E2,4.3105396E3,6.376849E3,2.312603E1,8.7E-1,2.8630713E3,3.2358E1,4.5E0,1.92315E1,1.9911252E4,8.09675E1,3.5327134E3,3.005E2,5.9E1,3.135E2,2.1535757E0,5.034142E1,-1.1368532E1,5.14693E1,1.3536476E2,2.0208672E2,1.9098389E2,3.1998068E2,5.143472E0,4.942573E2,6.735695E2,1.0713549E3,1.229941E3,6.206529E2,1.1640442E3,1.6831195E3,1.6824551E3,8.9461975E2,2.3056345E3,1.4505199E3,8.516423E2,2.6668496E3,3.330856E3,1.0923417E3],"split_indices":[5,5,5,5,5,5,5,5,5,10,7,10,10,0,0,7,10,5,10,7,19,9,10,9,3,0,3,0,0,0,0,0,0,0,0,0,0,0,0,0,0,0,0,0,0,0,0,0,0,0,0],"sum_hessian":[3.9976E4,3.9677E4,2.99E2,3.8972E4,7.05E2,2.15E2,8.4E1,3.7045E4,1.927E3,5.07E2,1.98E2,9.6E1,1.19E2,6.7E1,1.7E1,3.111E4,5.935E3,1.242E3,6.85E2,3.08E2,1.99E2,9.8E1,1E2,3.4E1,6.2E1,6.2E1,5.7E1,3.0682E4,4.28E2,7.83E2,5.152E3,8.71E2,3.71E2,1.2E2,5.65E2,2E1,2.88E2,1.6E2,3.9E1,7.1E1,2.7E1,4.9E1,5.1E1,1.7E1,1.7E1,5.5E1,7E0,6E0,5.6E1,5.5E1,2E0],"tree_param":{"num_deleted":"0","num_feature":"30","num_nodes":"51","size_leaf_vector":"0"}},{"base_weights":[5.1554755E2,2.760482E2,2.5424621E4,1.4858043E2,5.334549E3,2.0610324E4,4.511879E4,6.6828026E1,1.3488007E3,3.9642566E3,9.531998E3,1.628489E4,2.582068E4,4.1084094E4,6.969224E4,1.4405797E1,2.6967874E2,1.0321041E3,2.0619783E3,3.304669E3,5.3219995E3,8.295254E3,1.2341401E4,1.2432968E4,1.8895324E4,2.2851277E4,2.9091861E4,8.101117E0,6.165055E2,-6.869596E1,3.2364093E2,-6.361005E2,1.0612852E3,2.030309E3,6.4169956E3,-3.802235E2,3.4677148E3,9.127494E3,4.8347334E3,4.907594E3,9.522203E3,1.5622336E4,7.60367E3,6.638768E3,1.484944E4,1.5053931E4,2.0481512E4,8.231146E3,2.3970709E4,2.981965E4,1.1081506E4],"default_left":[true,true,true,true,true,true,true,true,true,true,true,true,true,false,false,true,true,true,true,true,true,true,true,true,true,true,true,false,false,false,false,false,false,false,false,false,false,false,false,false,false,false,false,false,false,false,false,false,false,false,false],"id":6,"leaf_child_counts":[0,0,0,0,0,0,0,0,0,0,0,0,0,0,0,0,0,0,0,0,0,0,0,0,0,0,0,0,0,0,0,0,0,0,0,0,0,0,0,0,0,0,0,0,0,0,0,0,0,0,0],"left_children":[1,3,5,7,9,11,13,15,17,19,21,23,25,-1,-1,27,29,31,33,35,37,39,41,43,45,47,49,-1,-1,-1,-1,-1,-1,-1,-1,-1,-1,-1,-1,-1,-1,-1,-1,-1,-1,-1,-1,-1,-1,-1,-1],"loss_changes":[2.3866878E11,2.5551114E10,3.519339E10,3.7927593E9,5.5642624E9,6.5205043E9,4.472488E9,3.8484422E8,5.5458765E8,6.41452E8,7.278264E8,1.4841979E9,6.751437E8,0E0,0E0,1.0916306E8,1.357289E8,8.387315E7,9.129318E7,3.0055117E8,3.9890637E8,6.5557094E8,9.84619E8,9.09312E8,3.006341E8,1.062572E9,4.8182886E8,0E0,0E0,0E0,0E0,0E0,0E0,0E0,0E0,0E0,0E0,0E0,0E0,0E0,0E0,0E0,0E0,0E0,0E0,0E0,0E0,0E0,0E0,0E0,0E0],"parents":[2147483647,0,0,1,1,2,2,3,3,4,4,5,5,6,6,7,7,8,8,9,9,10,10,11,11,12,12,15,15,16,16,17,17,18,18,19,19,20,20,21,21,22,22,23,23,24,24,25,25,26,26],"right_children":[2,4,6,8,10,12,14,16,18,20,22,24,26,-1,-1,28,30,32,34,36,38,40,42,44,46,48,50,-1,-1,-1,-1,-1,-1,-1,-1,-1,-1,-1,-1,-1,-1,-1,-1,-1,-1,-1,-1,-1,-1,-1,-1],"split_conditions":[2.2536215E4,4.6659287E3,6.201307E4,1.2086426E3,1.0967357E4,3.8831715E4,2.930595E2,2.040715E2,2.8020713E3,1.748935E2,2.984395E2,1.02218E2,1.498235E2,4.1084097E3,6.969224E3,2.312603E1,1.843E0,7.93E-1,7.3248096E2,1.4435E0,1.3075E0,5.9885256E7,7.4820004E0,5.9E1,2.6944857E4,5.9E1,3.135E2,8.101117E-1,6.165055E1,-6.869596E0,3.2364094E1,-6.3610054E1,1.0612852E2,2.030309E2,6.416996E2,-3.802235E1,3.4677148E2,9.1274945E2,4.8347336E2,4.9075943E2,9.5222034E2,1.5622336E3,7.60367E2,6.6387683E2,1.4849441E3,1.5053931E3,2.0481511E3,8.231147E2,2.397071E3,2.981965E3,1.1081506E3],"split_indices":[5,5,5,5,5,5,10,5,5,10,10,10,10,0,0,7,10,10,10,10,14,16,14,0,5,0,3,0,0,0,0,0,0,0,0,0,0,0,0,0,0,0,0,0,0,0,0,0,0,0,0],"sum_hessian":[4.0007E4,3.9627E4,3.8E2,3.8654E4,9.73E2,3.07E2,7.3E1,3.619E4,2.464E3,7.35E2,2.38E2,1.7E2,1.37E2,6.5E1,8E0,2.8759E4,7.431E3,1.708E3,7.56E2,4.97E2,2.38E2,1.68E2,7E1,7.1E1,9.9E1,7.6E1,6.1E1,2.8462E4,2.97E2,1.022E3,6.409E3,2.9E1,1.679E3,7.52E2,4E0,2.1E1,4.76E2,2.5E1,2.13E2,4.6E1,1.22E2,4E1,3E1,2.2E1,4.9E1,3.2E1,6.7E1,6E0,7E1,5.8E1,3E0],"tree_param":{"num_deleted":"0","num_feature":"30","num_nodes":"51","size_leaf_vector":"0"}},{"base_weights":[4.549739E2,2.670566E2,2.5531473E4,1.5991733E2,7.0863433E3,1.9457637E4,3.724151E4,8.252114E1,1.9067634E3,5.0343477E3,1.03032295E4,1.7328371E4,2.450921E4,3.4481207E4,6.467361E4,4.8962475E1,6.918465E2,1.4638744E3,2.6123672E3,-3.7807125E1,5.275338E3,8.293016E3,1.2037958E4,1.4267381E4,1.9394006E4,2.4986596E4,7.7432056E3,2.6870666E4,3.718733E4,1.0781831E1,2.0445274E2,5.934077E2,8.590924E2,1.2602089E3,1.7769276E3,2.3969956E3,3.1475767E3,-5.8573944E2,2.8291212E1,4.607814E3,6.560778E3,9.189417E3,4.167017E3,1.1318312E4,2.4422883E4,7.252632E3,1.832203E4,1.5661221E4,2.2114936E4,1.9709568E4,2.6878215E4,2.8128443E4,3.9755953E4],"default_left":[true,true,true,true,true,true,true,true,true,true,true,true,true,true,false,true,true,true,true,true,true,true,true,true,true,true,false,false,true,false,false,false,false,false,false,false,false,false,false,false,false,false,false,false,false,false,false,false,false,false,false,false,false],"id":7,"leaf_child_counts":[0,0,0,0,0,0,0,0,0,0,0,0,0,0,0,0,0,0,0,0,0,0,0,0,0,0,0,0,0,0,0,0,0,0,0,0,0,0,0,0,0,0,0,0,0,0,0,0,0,0,0,0,0],"left_children":[1,3,5,7,9,11,13,15,17,19,21,23,25,27,-1,29,31,33,35,37,39,41,43,45,47,49,-1,-1,51,-1,-1,-1,-1,-1,-1,-1,-1,-1,-1,-1,-1,-1,-1,-1,-1,-1,-1,-1,-1,-1,-1,-1,-1],"loss_changes":[1.8752863E11,2.885949E10,2.032776E10,5.2579907E9,3.9812096E9,1.6938353E9,5.3410693E9,7.615091E8,5.1176653E8,4.5862912E8,7.264256E8,6.2081434E8,2.5441075E8,9.154478E8,0E0,2.095618E8,3.1480704E7,6.2508544E7,6.5595904E7,6.7405925E5,2.7684352E8,3.7951027E8,8.373125E8,1.6018432E9,4.8611942E8,8.810496E6,0E0,0E0,4.1679258E8,0E0,0E0,0E0,0E0,0E0,0E0,0E0,0E0,0E0,0E0,0E0,0E0,0E0,0E0,0E0,0E0,0E0,0E0,0E0,0E0,0E0,0E0,0E0,0E0],"parents":[2147483647,0,0,1,1,2,2,3,3,4,4,5,5,6,6,7,7,8,8,9,9,10,10,11,11,12,12,13,13,15,15,16,16,17,17,18,18,19,19,20,20,21,21,22,22,23,23,24,24,25,25,28,28],"right_children":[2,4,6,8,10,12,14,16,18,20,22,24,26,28,-1,30,32,34,36,38,40,42,44,46,48,50,-1,-1,52,-1,-1,-1,-1,-1,-1,-1,-1,-1,-1,-1,-1,-1,-1,-1,-1,-1,-1,-1,-1,-1,-1,-1,-1],"split_conditions":[2.841893E4,7.1665E3,5.472014E4,2.103E3,1.2817215E4,4.451214E4,3.095E2,9.240823E2,4.065357E3,3E0,3.705E2,7.365E2,2.753646E4,8.85E2,6.467361E3,1.846425E2,1.4660715E3,3.1017856E3,5.863643E3,3.05E1,1.0241285E4,3.41714E2,2.6417453E4,4.65E1,3.678893E4,5.745E2,7.7432056E2,2.6870667E3,6.316236E4,1.078183E0,2.0445274E1,5.934077E1,8.590924E1,1.2602089E2,1.7769276E2,2.3969957E2,3.1475766E2,-5.8573944E1,2.8291214E0,4.607814E2,6.560778E2,9.189417E2,4.1670172E2,1.1318312E3,2.4422883E3,7.252632E2,1.832203E3,1.5661221E3,2.2114937E3,1.9709569E3,2.6878215E3,2.8128445E3,3.9755955E3],"split_indices":[5,5,5,5,5,5,3,5,5,7,7,7,9,7,0,5,5,5,5,0,5,8,9,0,5,7,0,0,5,0,0,0,0,0,0,0,0,0,0,0,0,0,0,0,0,0,0,0,0,0,0,0,0],"sum_hessian":[3.9796E4,3.9501E4,2.95E2,3.8891E4,6.1E2,1.96E2,9.9E1,3.7242E4,1.649E3,3.74E2,2.36E2,1.41E2,5.5E1,9.2E1,7E0,3.5299E4,1.943E3,1.015E3,6.34E2,1.7E1,3.57E2,1.12E2,1.24E2,6E1,8.1E1,5.3E1,2E0,2.7E1,6.5E1,2.8341E4,6.958E3,1.226E3,7.17E2,6.18E2,3.97E2,4.56E2,1.78E2,1E0,1.6E1,2.38E2,1.19E2,9.1E1,2.1E1,1.19E2,5E0,2.3E1,3.7E1,3.7E1,4.4E1,1.7E1,3.6E1,1.7E1,4.8E1],"tree_param":{"num_deleted":"0","num_feature":"30","num_nodes":"53","size_leaf_vector":"0"}},{"base_weights":[4.0265955E2,2.378066E2,2.0482E4,1.5118765E2,4.3074414E3,1.9309752E4,5.547579E4,7.309218E1,1.2491644E3,3.5818801E3,1.2331826E4,3.0523006E4,1.6452451E4,1.6259283E4,5.8025477E4,2.0892138E1,3.1565588E2,1.1737678E3,8.317736E3,2.5893757E3,1.1206834E4,4.1857866E3,1.43660625E4,2.59331E4,3.7377492E4,1.2063568E4,2.488569E4,-7.882273E0,1.03475075E2,2.6832925E2,1.8975659E3,7.399892E2,1.7849446E3,6.554932E3,1.33933955E4,1.8225472E3,4.860868E3,4.609849E3,1.2860833E4,6.0416226E3,2.27616E3,1.2563818E4,2.668838E4,7.9854683E3,1.55543955E4,2.911708E4,2.1410676E4],"default_left":[true,true,true,true,true,true,true,true,true,true,true,true,true,false,false,true,true,true,true,true,true,true,true,false,false,true,true,false,false,false,false,false,false,false,false,false,false,false,false,false,false,false,false,false,false,false,false],"id":8,"leaf_child_counts":[0,0,0,0,0,0,0,0,0,0,0,0,0,0,0,0,0,0,0,0,0,0,0,0,0,0,0,0,0,0,0,0,0,0,0,0,0,0,0,0,0,0,0,0,0,0,0],"left_children":[1,3,5,7,9,11,13,15,17,19,21,23,25,-1,-1,27,29,31,33,35,37,39,41,-1,-1,43,45,-1,-1,-1,-1,-1,-1,-1,-1,-1,-1,-1,-1,-1,-1,-1,-1,-1,-1,-1,-1],"loss_changes":[1.3210916E11,1.3954371E10,1.2259959E10,3.3237926E9,4.7589724E9,9.621881E9,5.570355E7,4.5823456E8,1.3619466E9,5.7072364E9,1.06650624E9,1.0121257E9,9.100591E9,0E0,0E0,7.077438E7,4.792884E8,6.7416806E8,1.535872E8,1.1615944E9,8.898304E8,3.932443E7,8.635228E8,0E0,0E0,2.281431E9,6.406349E8,0E0,0E0,0E0,0E0,0E0,0E0,0E0,0E0,0E0,0E0,0E0,0E0,0E0,0E0,0E0,0E0,0E0,0E0,0E0,0E0],"parents":[2147483647,0,0,1,1,2,2,3,3,4,4,5,5,6,6,7,7,8,8,9,9,10,10,11,11,12,12,15,15,16,16,17,17,18,18,19,19,20,20,21,21,22,22,25,25,26,26],"right_children":[2,4,6,8,10,12,14,16,18,20,22,24,26,-1,-1,28,30,32,34,36,38,40,42,-1,-1,44,46,-1,-1,-1,-1,-1,-1,-1,-1,-1,-1,-1,-1,-1,-1,-1,-1,-1,-1,-1,-1],"split_conditions":[1.375591E6,4.02828E5,8.91354E6,2.76425E1,3.37011E2,8.28405E1,2.75336E2,3.56565E1,1.0080145E3,1.8862438E8,5.45E1,5.5181E1,1.6105649E2,1.6259283E3,5.802548E3,4.5E-3,1.3603E5,5.2767998E1,1.645093E3,1.74248E2,1.58535E1,3.055E2,7.4525354E2,2.59331E3,3.7377493E3,2.7178102E8,3.2525E0,-7.882273E-1,1.0347507E1,2.6832926E1,1.8975659E2,7.3998924E1,1.7849446E2,6.554932E2,1.3393396E3,1.8225473E2,4.8608682E2,4.6098492E2,1.2860834E3,6.041623E2,2.27616E2,1.2563818E3,2.6688381E3,7.985468E2,1.5554396E3,2.911708E3,2.1410676E3],"split_indices":[4,4,4,8,10,12,10,10,10,16,0,10,10,0,0,13,4,10,10,10,10,3,10,0,0,16,14,0,0,0,0,0,0,0,0,0,0,0,0,0,0,0,0,0,0,0,0],"sum_hessian":[3.9911E4,3.9587E4,3.24E2,3.8763E4,8.24E2,3.15E2,9E0,3.619E4,2.573E3,7.57E2,6.7E1,6.2E1,2.53E2,1E0,8E0,2.9782E4,6.408E3,2.547E3,2.6E1,6.71E2,8.6E1,1.4E1,5.3E1,4E1,2.2E1,1.68E2,8.5E1,2.2087E4,7.695E3,6.223E3,1.85E2,1.491E3,1.056E3,2.1E1,5E0,5.03E2,1.68E2,1.8E1,6.8E1,6E0,8E0,4.8E1,5E0,7.9E1,8.9E1,3.5E1,5E1],"tree_param":{"num_deleted":"0","num_feature":"30","num_nodes":"47","size_leaf_vector":"0"}},{"base_weights":[3.6662686E2,2.0390747E2,1.9303664E4,1.2166081E2,4.979051E3,1.5317704E4,2.988182E4,6.0224525E1,1.4353247E3,3.800736E3,7.4549683E3,1.2118077E4,1.8247602E4,2.761614E4,4.4053984E4,1.6868164E1,3.2454666E2,1.1253365E3,2.0273901E3,3.490827E3,7.024616E3,-2.27719E3,7.6975776E3,8.756258E3,1.396893E4,1.5202886E4,2.0333168E4,2.0568055E4,2.9857473E4,-4.369973E3,1.7142746E1,-9.4461815E1,4.0632593E2,-1.1431366E3,1.1585653E3,1.9647615E3,6.383759E3,-5.989347E1,3.6415305E3,1.7446174E4,4.600813E3,7.021932E3,1.0988218E4,3.6990425E3,1.1329804E4,1.7200066E4,1.2691463E4,2.0991867E4,1.0839372E4,2.0508742E4,3.8409604E3,2.244598E4,3.1828947E4],"default_left":[true,true,true,true,true,true,true,true,true,true,true,true,true,true,false,true,true,true,true,true,true,false,true,true,true,true,true,false,true,false,false,false,false,false,false,false,false,false,false,false,false,false,false,false,false,false,false,false,false,false,false,false,false],"id":9,"leaf_child_counts":[0,0,0,0,0,0,0,0,0,0,0,0,0,0,0,0,0,0,0,0,0,0,0,0,0,0,0,0,0,0,0,0,0,0,0,0,0,0,0,0,0,0,0,0,0,0,0,0,0,0,0,0,0],"left_children":[1,3,5,7,9,11,13,15,17,19,21,23,25,27,-1,29,31,33,35,37,39,-1,41,43,45,47,49,-1,51,-1,-1,-1,-1,-1,-1,-1,-1,-1,-1,-1,-1,-1,-1,-1,-1,-1,-1,-1,-1,-1,-1,-1,-1],"loss_changes":[1.2297546E11,1.5540441E10,1.3877625E10,3.1395476E9,1.9262177E9,2.1128438E9,1.7367695E9,4.2590378E8,3.166679E8,4.309673E8,5.252229E8,6.365696E8,5.0331648E8,6.80747E8,0E0,3.8491216E7,1.7949363E8,8.748186E7,1.4998298E8,2.2392832E8,9.046454E8,0E0,3.895552E8,5.5662925E8,9.923789E7,1.1867197E9,1.3236019E8,0E0,1.6171827E8,0E0,0E0,0E0,0E0,0E0,0E0,0E0,0E0,0E0,0E0,0E0,0E0,0E0,0E0,0E0,0E0,0E0,0E0,0E0,0E0,0E0,0E0,0E0,0E0],"parents":[2147483647,0,0,1,1,2,2,3,3,4,4,5,5,6,6,7,7,8,8,9,9,10,10,11,11,12,12,13,13,15,15,16,16,17,17,18,18,19,19,20,20,22,22,23,23,24,24,25,25,26,26,28,28],"right_children":[2,4,6,8,10,12,14,16,18,20,22,24,26,28,-1,30,32,34,36,38,40,-1,42,44,46,48,50,-1,52,-1,-1,-1,-1,-1,-1,-1,-1,-1,-1,-1,-1,-1,-1,-1,-1,-1,-1,-1,-1,-1,-1,-1,-1],"split_conditions":[2.3967145E4,6.433215E3,5.472014E4,1.8872855E3,1.20895E4,3.711493E4,2.36853E2,4.972145E2,3.9195E3,4.926515E2,1.35E1,9.75475E1,1.337115E2,8.915E2,4.4053984E3,-5.385E2,2.5245E0,8.4150004E-1,8.1134546E2,4.5E0,2.84E2,-2.27719E2,4.372105E2,5.9E1,2.8335E0,9.1909E1,3.145E2,2.0568054E3,6.3336E4,-4.369973E2,1.7142746E0,-9.446181E0,4.0632595E1,-1.1431366E2,1.1585653E2,1.9647615E2,6.383759E2,-5.989347E0,3.6415305E2,1.7446174E3,4.600813E2,7.0219324E2,1.0988218E3,3.6990427E2,1.1329803E3,1.7200067E3,1.2691464E3,2.0991868E3,1.0839373E3,2.0508743E3,3.8409604E2,2.2445981E3,3.1828948E3],"split_indices":[5,5,5,5,5,5,10,5,5,10,7,10,10,7,0,5,10,10,10,7,3,0,10,0,14,12,3,0,5,0,0,0,0,0,0,0,0,0,0,0,0,0,0,0,0,0,0,0,0,0,0,0,0],"sum_hessian":[3.9909E4,3.957E4,3.39E2,3.8901E4,6.69E2,2.48E2,9.1E1,3.7164E4,1.737E3,4.55E2,2.14E2,1.21E2,1.27E2,8.1E1,1E1,3.1928E4,5.236E3,1.142E3,5.95E2,4.17E2,3.8E1,5E0,2.09E2,4.5E1,7.6E1,5.5E1,7.2E1,2.2E1,5.9E1,1E0,3.1927E4,8.55E2,4.381E3,1.6E1,1.126E3,5.88E2,7E0,1.7E1,4E2,6E0,3.2E1,1.76E2,3.3E1,1.6E1,2.9E1,1.8E1,5.8E1,2.2E1,3.3E1,7.1E1,1E0,1.5E1,4.4E1],"tree_param":{"num_deleted":"0","num_feature":"30","num_nodes":"53","size_leaf_vector":"0"}}]},"name":"gbtree"},"learner_model_param":{"base_score":"5E-1","num_class":"0","num_feature":"30"},"objective":{"name":"reg:squarederror","reg_loss_param":{"scale_pos_weight":"1"}}},"version":[1,2,1]}